{
  "type": "NeuralNetwork",
  "sizes": [
    15,
    20,
    15,
    5,
    17
  ],
  "layers": [
    {
      "weights": [],
      "biases": []
    },
    {
      "weights": [
        [
          -0.7965627312660217,
          0.598377525806427,
          1.4537198543548584,
          -0.2707750201225281,
          -0.2867249846458435,
          0.3575597405433655,
          -0.1147712841629982,
          0.0001239599077962339,
          -0.2765946388244629,
          -0.32559671998023987,
          -0.5408285856246948,
          -0.43110984563827515,
          1.2346457242965698,
          0.2377108484506607,
          0.1978594958782196
        ],
        [
          0.12818782031536102,
          0.21357643604278564,
          0.3889167904853821,
          -0.09349553287029266,
          0.02126607857644558,
          -0.1296226531267166,
          -0.18372787535190582,
          -0.1373794674873352,
          -0.5053989887237549,
          0.2643588185310364,
          0.2593104839324951,
          0.13468590378761292,
          0.2135411500930786,
          0.28818872570991516,
          0.19942501187324524
        ],
        [
          -0.5225365161895752,
          -0.606660008430481,
          -0.5306283831596375,
          0.3826502859592438,
          -0.4861004054546356,
          0.46925801038742065,
          0.13763025403022766,
          0.13156551122665405,
          0.18642592430114746,
          0.23796012997627258,
          0.1600247174501419,
          -0.29051682353019714,
          -0.4003065526485443,
          0.33573344349861145,
          0.540953516960144
        ],
        [
          -0.10375736653804779,
          0.5557432770729065,
          0.48389914631843567,
          0.16932575404644012,
          0.049063749611377716,
          -0.352961003780365,
          -0.595549464225769,
          0.03658154234290123,
          0.2627573311328888,
          0.09396068751811981,
          -0.2284730225801468,
          0.4105713367462158,
          0.28380924463272095,
          -0.3216383755207062,
          0.015803096815943718
        ],
        [
          -0.3601500988006592,
          0.39998218417167664,
          -0.8025156855583191,
          -0.19435814023017883,
          0.1866643875837326,
          0.2392883598804474,
          0.5166915059089661,
          0.6997180581092834,
          -0.5489009618759155,
          0.02616162598133087,
          -0.17159534990787506,
          -0.3464195132255554,
          -0.23159071803092957,
          0.4067746698856354,
          -0.04144614189863205
        ],
        [
          -0.08837256580591202,
          -0.31694042682647705,
          0.8871123194694519,
          0.3421403169631958,
          -0.0172635056078434,
          -0.2618805766105652,
          0.05814221501350403,
          -0.00022241209808271378,
          -0.20918682217597961,
          0.6961374878883362,
          0.489956259727478,
          -0.20134739577770233,
          0.8807989954948425,
          -0.7421226501464844,
          -0.15478049218654633
        ],
        [
          0.6250145435333252,
          0.6609472632408142,
          -0.34400445222854614,
          -0.03973681479692459,
          -0.032054368406534195,
          0.6422489285469055,
          -0.18020255863666534,
          -0.5550705194473267,
          -0.018866848200559616,
          -0.27552542090415955,
          0.09548596292734146,
          0.4039140045642853,
          0.16969391703605652,
          0.30388760566711426,
          -0.15950149297714233
        ],
        [
          -0.2144915610551834,
          0.14003154635429382,
          0.2580198049545288,
          -0.11643684655427933,
          -0.2610546052455902,
          0.08991459757089615,
          -0.2850930392742157,
          0.1172238364815712,
          -0.12370478361845016,
          -0.1028505191206932,
          0.04103481397032738,
          0.5492095947265625,
          -0.3218148648738861,
          0.1855836808681488,
          0.23451443016529083
        ],
        [
          -0.13501951098442078,
          0.20851151645183563,
          -1.2275668382644653,
          0.22079148888587952,
          0.2296995222568512,
          0.24626043438911438,
          0.9193236827850342,
          0.49057823419570923,
          0.3887781798839569,
          0.059534404426813126,
          -0.11429526656866074,
          0.03810769319534302,
          -0.5667424201965332,
          -0.3647714853286743,
          -0.23969419300556183
        ],
        [
          -0.5018806457519531,
          -0.4992402493953705,
          -0.32146039605140686,
          0.03505566343665123,
          0.3430024981498718,
          0.2710745930671692,
          0.10957085341215134,
          -0.054608866572380066,
          -0.20096954703330994,
          0.4046971797943115,
          0.06913458555936813,
          0.21299020946025848,
          -0.06339561939239502,
          0.08259772509336472,
          -0.02354315109550953
        ],
        [
          -0.17373806238174438,
          -0.08005627244710922,
          -0.13254016637802124,
          -0.19114965200424194,
          -0.12561674416065216,
          0.043810855597257614,
          -0.09789561480283737,
          -0.19379471242427826,
          -0.18019984662532806,
          0.12329626083374023,
          0.05347044765949249,
          0.14683853089809418,
          -0.1710406094789505,
          -0.1520751267671585,
          -0.11510050296783447
        ],
        [
          -0.18649478256702423,
          0.7053764462471008,
          -0.4894305467605591,
          -0.0888480693101883,
          0.43368959426879883,
          -0.3035452961921692,
          0.8921312689781189,
          0.46115121245384216,
          -0.294379860162735,
          0.11280379444360733,
          -0.026892729103565216,
          -0.06096790358424187,
          -0.43298521637916565,
          -0.1067277044057846,
          0.15479032695293427
        ],
        [
          -0.7984995245933533,
          0.2153220921754837,
          -0.3607209026813507,
          0.07353705912828445,
          0.11301421374082565,
          0.05516018718481064,
          0.03746829554438591,
          0.09743661433458328,
          -0.23614323139190674,
          0.12459788471460342,
          0.22203968465328217,
          0.7335096597671509,
          -0.28448641300201416,
          0.4209998548030853,
          0.29641178250312805
        ],
        [
          0.7549612522125244,
          0.35952141880989075,
          0.2541864812374115,
          -0.006330017000436783,
          0.32471132278442383,
          -0.3429467976093292,
          -0.150298073887825,
          -0.32738345861434937,
          -0.4177224040031433,
          0.428583025932312,
          0.026032092049717903,
          -0.1977434754371643,
          0.054380759596824646,
          0.33105969429016113,
          -0.07270185649394989
        ],
        [
          -1.1987948417663574,
          -0.665534257888794,
          0.015999430790543556,
          0.33519378304481506,
          -0.5049136877059937,
          0.6413889527320862,
          0.5057933926582336,
          1.0363612174987793,
          0.1880449801683426,
          0.24554972350597382,
          0.28215619921684265,
          -0.20847868919372559,
          0.2842973470687866,
          -0.2136562466621399,
          0.3598008155822754
        ],
        [
          -0.2458195686340332,
          -0.30585575103759766,
          -0.06785614788532257,
          0.18532954156398773,
          -0.24288591742515564,
          -0.2547106146812439,
          -0.16070906817913055,
          0.012752731330692768,
          -0.2340911626815796,
          0.4139566123485565,
          0.34744468331336975,
          0.36648640036582947,
          0.21071423590183258,
          -0.08343905955553055,
          -0.20480267703533173
        ],
        [
          0.2300875037908554,
          0.3790954053401947,
          0.25993385910987854,
          0.05078001320362091,
          -0.16670385003089905,
          0.031050290912389755,
          -0.30592823028564453,
          -0.21715569496154785,
          -0.13564631342887878,
          0.29795464873313904,
          0.18027853965759277,
          0.14845231175422668,
          0.3102163076400757,
          -0.2995598316192627,
          0.16396522521972656
        ],
        [
          -1.0122334957122803,
          -0.09759176522493362,
          0.10288459807634354,
          0.23302458226680756,
          0.23021292686462402,
          -0.6670011281967163,
          0.3408227860927582,
          -0.1037338525056839,
          -0.4093213975429535,
          0.1553054004907608,
          0.5584791302680969,
          0.06064717844128609,
          -0.5101101994514465,
          0.2897655665874481,
          0.19936634600162506
        ],
        [
          -0.12473424524068832,
          -0.057059720158576965,
          -0.03130539134144783,
          -0.1736130565404892,
          -0.08850841969251633,
          -0.056578513234853745,
          -0.13683564960956573,
          0.11198137700557709,
          0.0686512440443039,
          -0.11143273115158081,
          -0.039006222039461136,
          0.013064846396446228,
          0.06005432829260826,
          -0.03880566731095314,
          0.09234961122274399
        ],
        [
          -0.19986258447170258,
          -0.20593242347240448,
          -0.06416966021060944,
          0.12194735556840897,
          0.2958203852176666,
          0.11638833582401276,
          -0.15179751813411713,
          0.05149361118674278,
          0.032347679138183594,
          -0.1297002136707306,
          0.07790073752403259,
          -0.19119231402873993,
          -0.028712639585137367,
          0.31988126039505005,
          -0.010493598878383636
        ]
      ],
      "biases": [
        -0.15508803725242615,
        -0.13994422554969788,
        -0.1869426667690277,
        -0.09693930298089981,
        -0.1747712790966034,
        -0.20169362425804138,
        -0.3514147698879242,
        0.07612830400466919,
        0.092319056391716,
        0.10228708386421204,
        -0.04410130903124809,
        -0.36363717913627625,
        -0.025395222008228302,
        0.02372804842889309,
        -0.14972065389156342,
        0.2576204240322113,
        -0.08367534726858139,
        -0.19212500751018524,
        -0.1781528741121292,
        0.0017307859379798174
      ]
    },
    {
      "weights": [
        [
          0.09748636186122894,
          -0.06929603219032288,
          0.11645923554897308,
          0.15660816431045532,
          0.05657380446791649,
          0.11932386457920074,
          0.023502618074417114,
          -0.1911972463130951,
          -0.022677689790725708,
          -0.018583768978714943,
          0.07037482410669327,
          -0.1283218264579773,
          -0.06445557624101639,
          0.0362866185605526,
          -0.25086870789527893,
          0.17470435798168182,
          0.0897090882062912,
          -0.10154768824577332,
          -0.04693465679883957,
          -0.002962949452921748
        ],
        [
          -0.10274393856525421,
          0.09584304690361023,
          0.17372679710388184,
          0.06220249831676483,
          0.10448545217514038,
          -0.029994139447808266,
          -0.004202720243483782,
          -0.17307555675506592,
          -0.19648593664169312,
          0.0013823604676872492,
          0.04622981697320938,
          -0.08961247652769089,
          0.1442316472530365,
          -0.12421833723783493,
          0.17704512178897858,
          -0.17591270804405212,
          0.1504095494747162,
          0.0842323824763298,
          -0.12005414068698883,
          0.28427863121032715
        ],
        [
          -1.1482661962509155,
          0.39541465044021606,
          -1.0203285217285156,
          -0.3970133066177368,
          -0.16561682522296906,
          0.5858022570610046,
          0.8473235368728638,
          -0.2715834081172943,
          -0.03542633727192879,
          -0.17213718593120575,
          -0.0184442400932312,
          0.6583225727081299,
          -0.3072616755962372,
          0.7137166857719421,
          -0.8625290393829346,
          0.4181596338748932,
          0.07708240300416946,
          0.9155149459838867,
          -0.03361945226788521,
          -0.11637941747903824
        ],
        [
          -0.06347029656171799,
          0.2813286781311035,
          0.6097713708877563,
          0.6172671318054199,
          -0.3028022348880768,
          1.2507965564727783,
          0.03102896548807621,
          -0.16408900916576385,
          -0.4375284016132355,
          -0.18840870261192322,
          -0.06446875631809235,
          -0.2416306734085083,
          -0.24931186437606812,
          -0.08169379830360413,
          1.172183871269226,
          0.357544481754303,
          0.5441198945045471,
          0.17938931286334991,
          0.1186235174536705,
          -0.12069494277238846
        ],
        [
          0.9377190470695496,
          0.6389254331588745,
          0.4596291184425354,
          0.2699924409389496,
          -0.6165034174919128,
          0.14200803637504578,
          0.12783843278884888,
          0.5074737668037415,
          -1.061413288116455,
          -0.3580508828163147,
          0.025156216695904732,
          -0.2757762372493744,
          0.30363982915878296,
          0.30799442529678345,
          -0.7027492523193359,
          0.5169578790664673,
          0.4235960841178894,
          -0.6473097205162048,
          0.058118514716625214,
          0.020234109833836555
        ],
        [
          -0.059375666081905365,
          0.08109001815319061,
          -0.021939802914857864,
          0.08448322862386703,
          0.06192248687148094,
          -0.06660204380750656,
          0.19680455327033997,
          -0.18263547122478485,
          -0.17655466496944427,
          -0.1261393427848816,
          0.17337241768836975,
          -0.15572762489318848,
          -0.13917182385921478,
          -0.10159231722354889,
          -0.07245635241270065,
          -0.15733222663402557,
          0.030903926119208336,
          0.11683366447687149,
          -0.13999681174755096,
          0.019467398524284363
        ],
        [
          -0.582284152507782,
          0.3195245862007141,
          -0.3278558552265167,
          -0.4485347867012024,
          0.1693536937236786,
          -0.5239084959030151,
          0.21719789505004883,
          0.14730225503444672,
          0.22559405863285065,
          -0.10393983870744705,
          0.09530245512723923,
          0.5413330793380737,
          0.3266056776046753,
          0.41372713446617126,
          -0.6625065803527832,
          -0.0029116934165358543,
          -0.06248759478330612,
          0.345584511756897,
          0.17463912069797516,
          0.2892052233219147
        ],
        [
          0.6708627939224243,
          -0.04344635456800461,
          0.1993335634469986,
          -0.2982719838619232,
          0.8664017915725708,
          -0.1320049911737442,
          -0.8618857264518738,
          0.1275593340396881,
          0.573706328868866,
          0.6503146290779114,
          0.05011042580008507,
          0.8767654895782471,
          0.7476697564125061,
          -0.29753735661506653,
          0.395661324262619,
          0.19514916837215424,
          -0.10379674285650253,
          0.44561004638671875,
          0.15454033017158508,
          0.23890648782253265
        ],
        [
          -0.08916091918945312,
          -0.2784593403339386,
          -0.06710352003574371,
          0.4616583287715912,
          -0.1103609949350357,
          0.1930425614118576,
          0.045045625418424606,
          0.2387726604938507,
          0.2063339650630951,
          0.013913352973759174,
          -0.12659284472465515,
          0.0032065249979496002,
          0.011629074811935425,
          -0.18570832908153534,
          0.252158522605896,
          0.023050297051668167,
          0.015329589135944843,
          -0.27184632420539856,
          0.16666604578495026,
          -0.10810907185077667
        ],
        [
          -0.1214858740568161,
          0.016325268894433975,
          0.17923033237457275,
          -0.012798142619431019,
          0.19711916148662567,
          -0.25130072236061096,
          0.24439866840839386,
          -0.0680050328373909,
          0.1051412969827652,
          -0.13172702491283417,
          -0.12107603251934052,
          -0.055897898972034454,
          -0.06016779690980911,
          0.2239978164434433,
          0.01826736144721508,
          0.013492375612258911,
          0.1189212054014206,
          -0.23353268206119537,
          0.1655723601579666,
          -0.04561063274741173
        ],
        [
          0.010222448036074638,
          -0.14152230322360992,
          -0.0814446434378624,
          -0.0481170155107975,
          -0.18588237464427948,
          0.09309281408786774,
          0.12688672542572021,
          -0.036429841071367264,
          -0.004577752202749252,
          0.10734902322292328,
          -0.02355983480811119,
          0.14644183218479156,
          0.025153329595923424,
          -0.16735027730464935,
          -0.17781686782836914,
          -0.11684176325798035,
          -0.13015982508659363,
          -0.16110771894454956,
          -0.1772131621837616,
          0.12557172775268555
        ],
        [
          -0.06619001179933548,
          0.18444132804870605,
          0.049603693187236786,
          -0.07124942541122437,
          -0.08937198668718338,
          -0.12524239718914032,
          0.14917179942131042,
          -0.14355511963367462,
          0.08635643124580383,
          -0.11831974983215332,
          -0.04047045484185219,
          -0.09647480398416519,
          0.06431589275598526,
          0.16208790242671967,
          0.013738036155700684,
          -0.20830120146274567,
          -0.1668108105659485,
          0.2099592238664627,
          -0.09392475336790085,
          0.1914152354001999
        ],
        [
          1.1573574542999268,
          0.1709909290075302,
          0.4275256395339966,
          -0.06821084022521973,
          0.38250669836997986,
          -0.10322961211204529,
          -0.47829973697662354,
          0.06691496819257736,
          -0.1754048615694046,
          0.29869723320007324,
          0.09341160953044891,
          0.4185732305049896,
          0.6026624441146851,
          -0.20949052274227142,
          -0.05187080800533295,
          0.22626930475234985,
          0.10279795527458191,
          -0.2023434042930603,
          0.0823526680469513,
          0.22014079988002777
        ],
        [
          0.394050657749176,
          0.011890128254890442,
          0.0484507791697979,
          0.2939075529575348,
          -0.20946043729782104,
          0.6987077593803406,
          -0.11598023772239685,
          -0.08188574761152267,
          -0.2746308147907257,
          -0.13228225708007812,
          0.11480062454938889,
          0.03457678109407425,
          -0.04144684970378876,
          0.11073463410139084,
          0.09589730203151703,
          0.3946113586425781,
          0.2494071125984192,
          0.013659623451530933,
          0.14661328494548798,
          -0.11309591680765152
        ],
        [
          0.05539742112159729,
          -0.12423909455537796,
          -0.09920212626457214,
          0.02872065082192421,
          0.15310688316822052,
          0.07285504788160324,
          -0.16430945694446564,
          -0.19346509873867035,
          0.013247807510197163,
          -0.011788536794483662,
          -0.08493958413600922,
          -0.19320666790008545,
          -0.020752528682351112,
          -0.10378327965736389,
          -0.2124156802892685,
          -0.0605476051568985,
          0.04142124205827713,
          0.04855404049158096,
          0.16495491564273834,
          -0.11835911870002747
        ]
      ],
      "biases": [
        -0.12090490758419037,
        -0.07383844256401062,
        0.35859358310699463,
        -0.1678892970085144,
        0.21797160804271698,
        0.005123873706907034,
        0.3056810796260834,
        -0.19816620647907257,
        -0.17050330340862274,
        -0.14578451216220856,
        -0.11899758130311966,
        -0.10799670219421387,
        0.09134413301944733,
        -0.21123945713043213,
        0.07425548881292343
      ]
    },
    {
      "weights": [
        [
          -0.2635095417499542,
          0.10704230517148972,
          0.13937336206436157,
          -0.6138802170753479,
          -0.36667171120643616,
          -0.1657494455575943,
          0.32880154252052307,
          1.755162239074707,
          -0.3955478370189667,
          -0.28200671076774597,
          0.047309957444667816,
          -0.014632674865424633,
          0.9639182686805725,
          0.19863668084144592,
          -0.16720463335514069
        ],
        [
          0.22817116975784302,
          0.045812755823135376,
          0.6964473128318787,
          -1.7988125085830688,
          0.7933095693588257,
          0.017112428322434425,
          0.9465628266334534,
          -0.3785274922847748,
          0.1238856390118599,
          -0.1344342827796936,
          0.200622096657753,
          0.16209638118743896,
          0.05023171007633209,
          -0.5968441367149353,
          -0.10197512060403824
        ],
        [
          -0.07270743697881699,
          0.3758401572704315,
          -1.0698306560516357,
          -0.104679636657238,
          1.6348282098770142,
          0.049304500222206116,
          0.30691924691200256,
          0.13581213355064392,
          -0.5519216656684875,
          -0.37663641571998596,
          0.02227899059653282,
          0.11186855286359787,
          1.0935368537902832,
          0.529432475566864,
          0.10747461020946503
        ],
        [
          -0.1251937299966812,
          -0.0984845831990242,
          1.8813743591308594,
          -0.4124932289123535,
          -0.34828928112983704,
          0.20156989991664886,
          0.9894388318061829,
          -0.4877747595310211,
          -0.11267134547233582,
          0.15952715277671814,
          -0.1808883249759674,
          0.04907465726137161,
          -0.5257474184036255,
          0.21731309592723846,
          0.0999535471200943
        ],
        [
          0.04319072887301445,
          0.27024659514427185,
          -1.0168699026107788,
          -0.8973951935768127,
          -0.9418681859970093,
          -0.16427075862884521,
          0.48217907547950745,
          1.0308034420013428,
          0.0346665158867836,
          -0.07904165238142014,
          -0.024737032130360603,
          0.1318855881690979,
          0.4135091304779053,
          -0.5746515393257141,
          0.04516636207699776
        ]
      ],
      "biases": [
        0.03590996935963631,
        0.8196989297866821,
        0.34005630016326904,
        -0.20600269734859467,
        -0.3890035152435303
      ]
    },
    {
      "weights": [
        [
          -0.807190477848053,
          0.9852967858314514,
          0.23890545964241028,
          -0.28354302048683167,
          -0.22420984506607056
        ],
        [
          -0.00844845362007618,
          0.6494818925857544,
          -0.1430860310792923,
          -1.1883066892623901,
          -0.21010833978652954
        ],
        [
          -0.02722233161330223,
          -0.2115710973739624,
          -0.18808011710643768,
          0.09570929408073425,
          0.09855809062719345
        ],
        [
          0.5559758543968201,
          -1.292470097541809,
          -0.4527830481529236,
          0.2761375308036804,
          -0.08120530843734741
        ],
        [
          0.03636018559336662,
          -0.013088865205645561,
          -0.02962826006114483,
          -0.013933772221207619,
          -0.17307132482528687
        ],
        [
          -0.4857669174671173,
          1.030665636062622,
          -0.990420937538147,
          0.36652588844299316,
          -0.2818361818790436
        ],
        [
          0.5489241480827332,
          0.3847193121910095,
          -1.1007111072540283,
          -1.120508074760437,
          -0.20994757115840912
        ],
        [
          0.20731136202812195,
          0.3658018112182617,
          -0.1873241662979126,
          -0.4191141128540039,
          1.3152313232421875
        ],
        [
          0.3629213273525238,
          -0.26088419556617737,
          0.4604686200618744,
          -0.4483186900615692,
          -1.0103172063827515
        ],
        [
          0.24372521042823792,
          -0.5344626307487488,
          -0.0024488784838467836,
          0.19749832153320312,
          -0.07205474376678467
        ],
        [
          0.2560802698135376,
          -0.02422654628753662,
          -0.13002730906009674,
          0.12477979063987732,
          -1.1527055501937866
        ],
        [
          -0.261228084564209,
          -1.1461325883865356,
          0.8647618889808655,
          -0.1079639196395874,
          -0.14477196335792542
        ],
        [
          -0.08290008455514908,
          -0.8587613105773926,
          -0.8455852270126343,
          0.9598014950752258,
          0.1252196878194809
        ],
        [
          -0.36610227823257446,
          0.049171850085258484,
          0.05963733419775963,
          0.28915634751319885,
          -0.2123517543077469
        ],
        [
          -1.7112703323364258,
          -0.14256812632083893,
          -0.37770360708236694,
          0.574153482913971,
          0.07619627565145493
        ],
        [
          -1.5377575159072876,
          -0.0009553765412420034,
          0.8919650912284851,
          -0.41219455003738403,
          0.20376087725162506
        ],
        [
          -0.2732764184474945,
          0.02925373986363411,
          -1.1879624128341675,
          -1.211620569229126,
          -0.0037714140489697456
        ]
      ],
      "biases": [
        -0.37590914964675903,
        -0.026338819414377213,
        0.03546297177672386,
        -1.2102669477462769,
        -0.09599017351865768,
        -1.3789942264556885,
        0.07711466401815414,
        -0.9331428408622742,
        -1.312242865562439,
        -1.0580546855926514,
        -1.038530945777893,
        -0.6948086023330688,
        -0.9955493807792664,
        -0.253762811422348,
        0.3914188742637634,
        -0.02554616704583168,
        1.2035915851593018
      ]
    }
  ],
  "inputLookup": {
    "AGE": 0,
    "MONEY": 1,
    "SALARY": 2,
    "EXPENSES": 3,
    "THIRD_PILLAR": 4,
    "SECOND_PILLAR": 5,
    "HAS_JOB": 6,
    "HAS_MARRIED": 7,
    "HAS_HOUSE": 8,
    "HAS_KIDS": 9,
    "HAS_RENT_APARTMENT": 10,
    "HAS_HOUSEHOLD_INSURANCE": 11,
    "HAS_PART_TIME": 12,
    "HAS_EDUCATION": 13,
    "HAS_HOUSE_INSURANCE": 14
  },
  "inputLookupLength": 15,
  "outputLookup": {
    "GET_JOB": 0,
    "RENT_APARTMENT": 1,
    "HOUSEHOLD_LIABILITY_INSURANCE": 2,
    "JOB_LOSS": 3,
    "LOTTERY": 4,
    "MARRIAGE": 5,
    "EDUCATION": 6,
    "SALARY_INCREASE": 7,
    "KIDS": 8,
    "ROBBERY": 9,
    "PART_TIME": 10,
    "DIVORCE": 11,
    "2ND_PILLAR": 12,
    "BUY_HOUSE": 13,
    "HOUSE_INSURANCE": 14,
    "FLOODING": 15,
    "3A_INSURANCE": 16
  },
  "outputLookupLength": 17,
  "options": {
    "inputSize": 0,
    "outputSize": 0,
    "binaryThresh": 0.5,
    "hiddenLayers": [
      20,
      15,
      5
    ],
    "activation": "leaky-relu"
  },
  "trainOpts": {
    "activation": "leaky-relu",
    "iterations": 10000,
    "errorThresh": 0.001,
    "log": true,
    "logPeriod": 100,
    "leakyReluAlpha": 0.01,
    "learningRate": 0.002,
    "momentum": 0.1,
    "callbackPeriod": 10,
    "timeout": "Infinity",
    "beta1": 0.9,
    "beta2": 0.999,
    "epsilon": 1e-8
  }
}